{
  "vocabulary": {
    "vaccines": 0,
    "cause": 1,
    "infertility": 2,
    "and": 3,
    "make": 4,
    "women": 5,
    "barren": 6,
    "drinking": 7,
    "hot": 8,
    "water": 9,
    "cures": 10,
    "coronavirus": 11,
    "instantly": 12,
    "hiv": 13,
    "caused": 14,
    "witchcraft": 15,
    "curses": 16,
    "malaria": 17,
    "spread": 18,
    "mosquito": 19,
    "bites": 20,
    "wash": 21,
    "your": 22,
    "hands": 23,
    "with": 24,
    "soap": 25,
    "prevent": 26,
    "diarrhea": 27,
    "exclusive": 28,
    "breastfeeding": 29,
    "best": 30,
    "for": 31,
    "babies": 32,
    "under": 33,
    "months": 34,
    "enkingo": 35,
    "ezimba": 36,
    "kubeera": 37,
    "abaana": 38,
    "ereetera": 39,
    "obulogo": 40,
    "omusujja": 41,
    "gwa": 42,
    "ewonya": 43,
    "ebimera": 44,
    "zikuuma": 45,
    "naaba": 46,
    "ngalo": 47,
    "obulamu": 48,
    "covid": 49,
    "contain": 50,
    "tracking": 51,
    "microchips": 52,
    "arv": 53,
    "drugs": 54,
    "are": 55,
    "poison": 56,
    "kill": 57,
    "people": 58,
    "nets": 59,
    "transmission": 60,
    "antenatal": 61,
    "visits": 62,
    "important": 63,
    "pregnant": 64,
    "hospital": 65,
    "delivery": 66,
    "safer": 67,
    "than": 68,
    "home": 69,
    "birth": 70,
    "traditional": 71,
    "herbs": 72,
    "can": 73,
    "cure": 74,
    "aids": 75,
    "towers": 76,
    "the": 77,
    "corona": 78,
    "virus": 79,
    "eating": 80,
    "mangoes": 81,
    "causes": 82,
    "boiling": 83,
    "makes": 84,
    "safe": 85,
    "like": 86,
    "artemisia": 87,
    "enough": 88,
    "cured": 89,
    "juice": 90,
    "from": 91,
    "pawpaw": 92,
    "leaves": 93,
    "spiritual": 94,
    "healing": 95,
    "arvs": 96,
    "essential": 97,
    "managing": 98,
    "prevents": 99,
    "malnutrition": 100,
    "infants": 101,
    "using": 102,
    "treated": 103,
    "net": 104,
    "reduces": 105,
    "risk": 106,
    "sleeping": 107,
    "not": 108,
    "necessary": 109,
    "you": 110,
    "take": 111,
    "ebola": 112,
    "through": 113,
    "body": 114,
    "fluids": 115,
    "infected": 116,
    "persons": 117,
    "medicine": 118,
    "children": 119,
    "protect": 120,
    "against": 121,
    "polio": 122,
    "measles": 123,
    "highly": 124,
    "contagious": 125,
    "curse": 126,
    "ancestors": 127,
    "bwa": 128,
    "guyinza": 129,
    "okuziyizibwa": 130,
    "obutimba": 131,
    "olumbe": 132,
    "lwa": 133,
    "luvvoola": 134,
    "mbeera": 135,
    "bantu": 136,
    "tusaasaanyizibwa": 137,
    "mpewo": 138,
    "salt": 139,
    "protects": 140,
    "bleach": 141,
    "used": 142,
    "treat": 143,
    "internal": 144,
    "infections": 145,
    "hospitals": 146,
    "provide": 147,
    "safest": 148,
    "environment": 149,
    "childbirth": 150,
    "attendants": 151,
    "better": 152,
    "doctors": 153,
    "uncertain": 154,
    "about": 155,
    "new": 156,
    "herbal": 157,
    "drink": 158,
    "efficacy": 159,
    "some": 160,
    "remedies": 161,
    "might": 162,
    "help": 163,
    "minor": 164,
    "symptoms": 165,
    "waiting": 166,
    "more": 167,
    "research": 168,
    "this": 169,
    "health": 170,
    "claim": 171
  },
  "idf": [
    3.374905754573672,
    4.0680529351336165,
    4.0680529351336165,
    2.9694406464655074,
    4.0680529351336165,
    3.662587827025453,
    4.0680529351336165,
    3.151762203259462,
    4.0680529351336165,
    3.374905754573672,
    4.0680529351336165,
    4.0680529351336165,
    4.0680529351336165,
    3.151762203259462,
    3.662587827025453,
    4.0680529351336165,
    4.0680529351336165,
    2.563975538357343,
    3.374905754573672,
    3.374905754573672,
    4.0680529351336165,
    4.0680529351336165,
    4.0680529351336165,
    4.0680529351336165,
    3.662587827025453,
    4.0680529351336165,
    3.662587827025453,
    4.0680529351336165,
    3.662587827025453,
    3.662587827025453,
    4.0680529351336165,
    2.6817585740137266,
    4.0680529351336165,
    3.662587827025453,
    4.0680529351336165,
    3.374905754573672,
    4.0680529351336165,
    4.0680529351336165,
    3.374905754573672,
    4.0680529351336165,
    4.0680529351336165,
    3.662587827025453,
    3.662587827025453,
    4.0680529351336165,
    4.0680529351336165,
    3.662587827025453,
    4.0680529351336165,
    4.0680529351336165,
    4.0680529351336165,
    4.0680529351336165,
    4.0680529351336165,
    4.0680529351336165,
    4.0680529351336165,
    4.0680529351336165,
    4.0680529351336165,
    2.8152899666382494,
    4.0680529351336165,
    4.0680529351336165,
    4.0680529351336165,
    4.0680529351336165,
    4.0680529351336165,
    4.0680529351336165,
    4.0680529351336165,
    4.0680529351336165,
    4.0680529351336165,
    4.0680529351336165,
    4.0680529351336165,
    4.0680529351336165,
    3.662587827025453,
    3.662587827025453,
    3.662587827025453,
    3.374905754573672,
    3.374905754573672,
    2.9694406464655074,
    3.662587827025453,
    4.0680529351336165,
    4.0680529351336165,
    3.374905754573672,
    4.0680529351336165,
    3.662587827025453,
    4.0680529351336165,
    4.0680529351336165,
    4.0680529351336165,
    4.0680529351336165,
    4.0680529351336165,
    3.662587827025453,
    4.0680529351336165,
    4.0680529351336165,
    4.0680529351336165,
    3.374905754573672,
    4.0680529351336165,
    3.662587827025453,
    4.0680529351336165,
    4.0680529351336165,
    4.0680529351336165,
    4.0680529351336165,
    4.0680529351336165,
    4.0680529351336165,
    4.0680529351336165,
    4.0680529351336165,
    4.0680529351336165,
    4.0680529351336165,
    4.0680529351336165,
    4.0680529351336165,
    3.662587827025453,
    4.0680529351336165,
    4.0680529351336165,
    4.0680529351336165,
    4.0680529351336165,
    4.0680529351336165,
    4.0680529351336165,
    4.0680529351336165,
    2.9694406464655074,
    4.0680529351336165,
    4.0680529351336165,
    4.0680529351336165,
    4.0680529351336165,
    4.0680529351336165,
    4.0680529351336165,
    4.0680529351336165,
    4.0680529351336165,
    3.662587827025453,
    3.662587827025453,
    3.662587827025453,
    4.0680529351336165,
    4.0680529351336165,
    4.0680529351336165,
    4.0680529351336165,
    4.0680529351336165,
    4.0680529351336165,
    4.0680529351336165,
    4.0680529351336165,
    4.0680529351336165,
    4.0680529351336165,
    4.0680529351336165,
    4.0680529351336165,
    4.0680529351336165,
    4.0680529351336165,
    4.0680529351336165,
    4.0680529351336165,
    4.0680529351336165,
    4.0680529351336165,
    4.0680529351336165,
    4.0680529351336165,
    4.0680529351336165,
    4.0680529351336165,
    4.0680529351336165,
    4.0680529351336165,
    4.0680529351336165,
    4.0680529351336165,
    4.0680529351336165,
    4.0680529351336165,
    4.0680529351336165,
    4.0680529351336165,
    4.0680529351336165,
    4.0680529351336165,
    4.0680529351336165,
    4.0680529351336165,
    4.0680529351336165,
    4.0680529351336165,
    4.0680529351336165,
    4.0680529351336165,
    4.0680529351336165,
    4.0680529351336165,
    4.0680529351336165,
    4.0680529351336165,
    4.0680529351336165,
    4.0680529351336165,
    4.0680529351336165,
    4.0680529351336165,
    4.0680529351336165,
    4.0680529351336165
  ],
  "class_weights": [
    {
      "label": "ACCURATE",
      "intercept": 0.6043654205070274,
      "coefficients": [
        -0.3196406443870712,
        -0.4419844044863857,
        -0.4419844044863857,
        -0.02813159940846315,
        -0.4419844044863857,
        0.08093976322630125,
        -0.4419844044863857,
        -0.40731997895150923,
        -0.4169389827560539,
        -0.2153380233538963,
        -0.4169389827560539,
        -0.4169389827560539,
        -0.4169389827560539,
        -0.5981701852466667,
        0.29442397284121063,
        -0.567240391895536,
        -0.567240391895536,
        0.3985959556568146,
        0.5229140740839605,
        1.507096224147527,
        0.7422153625386022,
        0.5217868702810766,
        0.5217868702810766,
        0.5217868702810766,
        -0.017015111596971857,
        0.5217868702810766,
        0.9634027626502882,
        0.5217868702810766,
        0.8977727536387018,
        0.8977727536387018,
        0.43046643316224437,
        1.7841755205498966,
        0.43046643316224437,
        0.04822836141261658,
        0.43046643316224437,
        0.5215621536183708,
        -0.8612257765757364,
        -0.8612257765757364,
        0.5215621536183708,
        -0.5672677953052602,
        -0.5672677953052602,
        0.0651789764519932,
        0.0651789764519932,
        -0.6995107223102776,
        -0.6995107223102776,
        1.3414078230879198,
        0.8056741916041431,
        0.8056741916041431,
        0.8056741916041431,
        -0.4526009345160901,
        -0.4526009345160901,
        -0.4526009345160901,
        -0.4526009345160901,
        -0.4328692088176034,
        -0.4328692088176034,
        0.27292317485836326,
        -0.4328692088176034,
        -0.4328692088176034,
        -0.4328692088176034,
        0.5482689540179598,
        0.5482689540179598,
        0.5318845671342765,
        0.5318845671342765,
        0.5318845671342765,
        0.5318845671342765,
        0.7089223822149644,
        0.7089223822149644,
        0.7089223822149644,
        0.1965193654041137,
        0.15146849934471215,
        0.1965193654041137,
        -0.8757992745655446,
        -0.8660054992800208,
        -1.0981671628399479,
        -0.6004918762929294,
        -0.2644366284618899,
        -0.7208409181680384,
        -0.5847709525146642,
        -0.7208409181680384,
        0.15613289681029108,
        -0.5878971594736931,
        -0.5878971594736931,
        -0.5878971594736931,
        0.6655324298985068,
        0.6655324298985068,
        1.0577326630249746,
        -0.4025324260006974,
        -0.4025324260006974,
        -0.4025324260006974,
        -0.7330156418454278,
        -0.2661726672211075,
        -0.7566927364656331,
        -0.2661726672211075,
        -0.2661726672211075,
        -0.3168024741734077,
        -0.3168024741734077,
        0.6792384614837484,
        0.6792384614837484,
        0.6792384614837484,
        0.5666938420328518,
        0.5666938420328518,
        0.5666938420328518,
        0.5261433655241844,
        0.5261433655241844,
        0.1343691204891632,
        0.5261433655241844,
        0.5261433655241844,
        -0.3768989730856295,
        -0.3768989730856295,
        -0.3768989730856295,
        -0.3768989730856295,
        -0.3768989730856295,
        -0.15127376744071994,
        0.6089371224093659,
        0.6089371224093659,
        0.6089371224093659,
        0.6089371224093659,
        0.6089371224093659,
        -0.30058921570405417,
        0.5092960431978041,
        0.5092960431978041,
        0.0010244604486975561,
        0.9420456093370517,
        0.28807755041743227,
        0.8942584358186265,
        0.8942584358186265,
        -0.5742893921073928,
        -0.5742893921073928,
        0.5370382939109672,
        0.7719053075016664,
        0.7719053075016664,
        0.7719053075016664,
        0.6434212001598673,
        0.6434212001598673,
        0.6434212001598673,
        0.6434212001598673,
        0.6434212001598673,
        -0.6508518842185089,
        -0.6508518842185089,
        -0.5081581703242849,
        -0.5081581703242849,
        -0.35645816413694814,
        -0.35645816413694814,
        -0.35645816413694814,
        -0.35645816413694814,
        -0.35645816413694814,
        0.5222041358013313,
        0.5222041358013313,
        0.5222041358013313,
        0.5222041358013313,
        0.5222041358013313,
        -0.4906474304598618,
        -0.4906474304598618,
        -0.4906474304598618,
        -0.506235994164698,
        -0.506235994164698,
        -0.506235994164698,
        -0.506235994164698,
        -0.506235994164698,
        -0.506235994164698,
        -0.5406856320153182,
        -0.5406856320153182,
        -0.5406856320153182,
        -0.5406856320153182,
        -0.5406856320153182,
        -0.5406856320153182,
        -0.6321441149447489,
        -0.6321441149447489,
        -0.6321441149447489,
        -0.6321441149447489,
        -0.6321441149447489,
        -0.6321441149447489
      ]
    },
    {
      "label": "INACCURATE",
      "intercept": 0.8195054090762236,
      "coefficients": [
        0.5761200557553261,
        0.543895741902955,
        0.543895741902955,
        0.4122169807464222,
        0.543895741902955,
        0.10891157420081225,
        0.543895741902955,
        0.7220114130442814,
        0.524269682640384,
        0.49177701487781617,
        0.524269682640384,
        0.524269682640384,
        0.524269682640384,
        0.9775305992034683,
        -0.08094227459502365,
        0.6881341545927483,
        0.6881341545927483,
        0.15093591376763665,
        -0.19394345172292896,
        -1.2305016584899313,
        -0.6118607456134028,
        -0.3957516710032241,
        -0.3957516710032241,
        -0.3957516710032241,
        -0.782653007456057,
        -0.3957516710032241,
        -0.752650013654189,
        -0.3957516710032241,
        -0.7016727147208334,
        -0.7016727147208334,
        -0.32847260203672984,
        -2.0743838263045205,
        -0.32847260203672984,
        0.12639961023139293,
        -0.32847260203672984,
        -0.18238856926503125,
        1.0083269588807644,
        1.0083269588807644,
        -0.18238856926503125,
        0.718419746423868,
        0.718419746423868,
        0.15124971338265766,
        0.15124971338265766,
        0.8274066879878068,
        0.8274066879878068,
        -1.1057620945715219,
        -0.6445238671006702,
        -0.6445238671006702,
        -0.6445238671006702,
        0.5720575551987778,
        0.5720575551987778,
        0.5720575551987778,
        0.5720575551987778,
        0.5322414256591917,
        0.5322414256591917,
        0.1460946081122724,
        0.5322414256591917,
        0.5322414256591917,
        0.5322414256591917,
        -0.4402201177363571,
        -0.4402201177363571,
        -0.42292716175631406,
        -0.42292716175631406,
        -0.42292716175631406,
        -0.42292716175631406,
        -0.5604901985350887,
        -0.5604901985350887,
        -0.5604901985350887,
        0.024426309190583594,
        -0.9309719539400928,
        0.024426309190583594,
        1.1071116262014233,
        1.0932987294716054,
        1.42675170939016,
        0.7643600026687337,
        0.35543723632939034,
        0.8859270008335762,
        -0.06997356012982782,
        0.8859270008335762,
        0.09713644819096279,
        0.7220311115156921,
        0.7220311115156921,
        0.7220311115156921,
        -0.5420419225239367,
        -0.5420419225239367,
        -0.8675125091462333,
        0.4935408903959998,
        0.4935408903959998,
        0.4935408903959998,
        0.948747204871485,
        0.3391374640449493,
        0.9442708508990882,
        0.3391374640449493,
        0.3391374640449493,
        0.41303065316198856,
        0.41303065316198856,
        -0.5578630260886799,
        -0.5578630260886799,
        -0.5578630260886799,
        -0.4508784692361413,
        -0.4508784692361413,
        -0.4508784692361413,
        -0.4311445205659105,
        -0.4311445205659105,
        0.03396105916569118,
        -0.4311445205659105,
        -0.4311445205659105,
        0.4688652232340675,
        0.4688652232340675,
        0.4688652232340675,
        0.4688652232340675,
        0.4688652232340675,
        0.5585702491860695,
        -0.5078423323631259,
        -0.5078423323631259,
        -0.5078423323631259,
        -0.5078423323631259,
        -0.5078423323631259,
        0.3914353289772389,
        -0.4215081616698358,
        -0.4215081616698358,
        0.1702014946710493,
        -0.7708252752295616,
        -0.06155430635871518,
        -0.7780371066292857,
        -0.7780371066292857,
        0.7096684589739336,
        0.7096684589739336,
        -0.434650972654454,
        -0.659412944349953,
        -0.659412944349953,
        -0.659412944349953,
        -0.5320336465358361,
        -0.5320336465358361,
        -0.5320336465358361,
        -0.5320336465358361,
        -0.5320336465358361,
        0.8031149667663144,
        0.8031149667663144,
        0.6105517348646411,
        0.6105517348646411,
        0.45557036047869115,
        0.45557036047869115,
        0.45557036047869115,
        0.45557036047869115,
        0.45557036047869115,
        -0.3924669135026374,
        -0.3924669135026374,
        -0.3924669135026374,
        -0.3924669135026374,
        -0.3924669135026374,
        0.5876206110985835,
        0.5876206110985835,
        0.5876206110985835,
        -0.5778050046022231,
        -0.5778050046022231,
        -0.5778050046022231,
        -0.5778050046022231,
        -0.5778050046022231,
        -0.5778050046022231,
        -0.47354457922718435,
        -0.47354457922718435,
        -0.47354457922718435,
        -0.47354457922718435,
        -0.47354457922718435,
        -0.47354457922718435,
        -0.4814252495430098,
        -0.4814252495430098,
        -0.4814252495430098,
        -0.4814252495430098,
        -0.4814252495430098,
        -0.4814252495430098
      ]
    },
    {
      "label": "UNCERTAIN",
      "intercept": -1.4238708295832412,
      "coefficients": [
        -0.2564794113682563,
        -0.101911337416569,
        -0.101911337416569,
        -0.38408538133795955,
        -0.101911337416569,
        -0.18985133742711346,
        -0.101911337416569,
        -0.3146914340927722,
        -0.10733069988432974,
        -0.27643899152391993,
        -0.10733069988432974,
        -0.10733069988432974,
        -0.10733069988432974,
        -0.37936041395680276,
        -0.21348169824618685,
        -0.12089376269721226,
        -0.12089376269721226,
        -0.5495318694244502,
        -0.32897062236103125,
        -0.27659456565759954,
        -0.13035461692519962,
        -0.12603519927785278,
        -0.12603519927785278,
        -0.12603519927785278,
        0.7996681190530294,
        -0.12603519927785278,
        -0.21075274899609833,
        -0.12603519927785278,
        -0.1961000389178665,
        -0.1961000389178665,
        -0.10199383112551388,
        0.2902083057546269,
        -0.10199383112551388,
        -0.1746279716440094,
        -0.10199383112551388,
        -0.33917358435333994,
        -0.1471011823050283,
        -0.1471011823050283,
        -0.33917358435333994,
        -0.15115195111860788,
        -0.15115195111860788,
        -0.21642868983465088,
        -0.21642868983465088,
        -0.12789596567752906,
        -0.12789596567752906,
        -0.23564572851639595,
        -0.16115032450347247,
        -0.16115032450347247,
        -0.16115032450347247,
        -0.11945662068268785,
        -0.11945662068268785,
        -0.11945662068268785,
        -0.11945662068268785,
        -0.09937221684158841,
        -0.09937221684158841,
        -0.4190177829706362,
        -0.09937221684158841,
        -0.09937221684158841,
        -0.09937221684158841,
        -0.10804883628160297,
        -0.10804883628160297,
        -0.10895740537796211,
        -0.10895740537796211,
        -0.10895740537796211,
        -0.10895740537796211,
        -0.14843218367987424,
        -0.14843218367987424,
        -0.14843218367987424,
        -0.22094567459469705,
        0.7795034545953808,
        -0.22094567459469705,
        -0.23131235163587613,
        -0.22729323019158365,
        -0.3285845465502108,
        -0.16386812637580417,
        -0.09100060786750022,
        -0.16508608266553934,
        0.6547445126444922,
        -0.16508608266553934,
        -0.2532693450012537,
        -0.13413395204199852,
        -0.13413395204199852,
        -0.13413395204199852,
        -0.12349050737456935,
        -0.12349050737456935,
        -0.19022015387874153,
        -0.09100846439530233,
        -0.09100846439530233,
        -0.09100846439530233,
        -0.21573156302605628,
        -0.07296479682384183,
        -0.1875781144334547,
        -0.07296479682384183,
        -0.07296479682384183,
        -0.09622817898858027,
        -0.09622817898858027,
        -0.12137543539506813,
        -0.12137543539506813,
        -0.12137543539506813,
        -0.11581537279671072,
        -0.11581537279671072,
        -0.11581537279671072,
        -0.09499884495827403,
        -0.09499884495827403,
        -0.16833017965485417,
        -0.09499884495827403,
        -0.09499884495827403,
        -0.09196625014843778,
        -0.09196625014843778,
        -0.09196625014843778,
        -0.09196625014843778,
        -0.09196625014843778,
        -0.4072964817453507,
        -0.10109479004623932,
        -0.10109479004623932,
        -0.10109479004623932,
        -0.10109479004623932,
        -0.10109479004623932,
        -0.09084611327318513,
        -0.08778788152796811,
        -0.08778788152796811,
        -0.17122595511974648,
        -0.17122033410749096,
        -0.226523244058717,
        -0.11622132918934036,
        -0.11622132918934036,
        -0.1353790668665406,
        -0.1353790668665406,
        -0.10238732125651301,
        -0.11249236315171313,
        -0.11249236315171313,
        -0.11249236315171313,
        -0.11138755362403119,
        -0.11138755362403119,
        -0.11138755362403119,
        -0.11138755362403119,
        -0.11138755362403119,
        -0.1522630825478052,
        -0.1522630825478052,
        -0.10239356454035611,
        -0.10239356454035611,
        -0.09911219634174274,
        -0.09911219634174274,
        -0.09911219634174274,
        -0.09911219634174274,
        -0.09911219634174274,
        -0.12973722229869356,
        -0.12973722229869356,
        -0.12973722229869356,
        -0.12973722229869356,
        -0.12973722229869356,
        -0.09697318063872135,
        -0.09697318063872135,
        -0.09697318063872135,
        1.0840409987669206,
        1.0840409987669206,
        1.0840409987669206,
        1.0840409987669206,
        1.0840409987669206,
        1.0840409987669206,
        1.0142302112425021,
        1.0142302112425021,
        1.0142302112425021,
        1.0142302112425021,
        1.0142302112425021,
        1.0142302112425021,
        1.1135693644877582,
        1.1135693644877582,
        1.1135693644877582,
        1.1135693644877582,
        1.1135693644877582,
        1.1135693644877582
      ]
    }
  ]
}